Language model created by QuickLM on Sun Mar 22 00:04:01 EDT 2020
Copyright (c) 1996-2010 Carnegie Mellon University and Alexander I. Rudnicky

The model is in standard ARPA format, designed by Doug Paul while he was at MITRE.

The code that was used to produce this language model is available in Open Source.
Please visit http://www.speech.cs.cmu.edu/tools/ for more information

The (fixed) discount mass is 0.5. The backoffs are computed using the ratio method.
This model based on a corpus of 20 sentences and 38 words

\data\
ngram 1=38
ngram 2=64
ngram 3=52

\1-grams:
-0.9912 </s> -0.3010
-0.9912 <s> -0.2443
-2.2923 AGE -0.2543
-1.9912 AM -0.2966
-2.2923 ARE -0.2921
-2.2923 AWAY -0.2543
-2.2923 BYE -0.2543
-1.6902 CAN -0.2852
-1.8151 DO -0.2493
-2.2923 FINE -0.2543
-2.2923 GO -0.2988
-2.2923 GOODBYE -0.2543
-2.2923 HELLO -0.2543
-2.2923 HELP -0.2988
-2.2923 HI -0.2543
-2.2923 HIS -0.2988
-1.9912 HISTORY -0.2418
-2.2923 HOW -0.2988
-1.8151 I -0.2875
-1.5933 IS -0.2875
-2.2923 JHON -0.2543
-2.2923 ME -0.2543
-2.2923 MY -0.2966
-1.9912 NAME -0.2418
-2.2923 NO -0.2988
-2.2923 NO,I -0.2921
-1.9912 NOTHING -0.2543
-2.2923 OH -0.2988
-2.2923 OLD -0.2543
-2.2923 PLEASE -0.2543
-2.2923 STORY -0.2543
-2.2923 TEN -0.2988
-2.2923 THANK -0.2921
-2.2923 THANKS -0.2543
-1.6902 WHAT -0.2806
-2.2923 YEARS -0.2988
-1.6902 YOU -0.2443
-1.9912 YOUR -0.2943

\2-grams:
-1.6021 <s> BYE 0.0000
-1.6021 <s> CAN -0.1761
-1.6021 <s> GO 0.0000
-1.6021 <s> GOODBYE 0.0000
-1.6021 <s> HELLO 0.0000
-1.6021 <s> HI 0.0000
-1.6021 <s> HISTORY -0.1761
-1.6021 <s> HOW 0.0000
-1.1249 <s> I 0.0000
-1.6021 <s> MY 0.0000
-1.6021 <s> NO,I 0.0000
-1.6021 <s> OH 0.0000
-1.6021 <s> THANK 0.0000
-1.6021 <s> THANKS 0.0000
-1.0000 <s> WHAT 0.0000
-0.3010 AGE </s> -0.3010
-0.6021 AM FINE 0.0000
-0.6021 AM TEN 0.0000
-0.3010 ARE YOU -0.1761
-0.3010 AWAY </s> -0.3010
-0.3010 BYE </s> -0.3010
-0.6021 CAN DO -0.1249
-0.6021 CAN YOU -0.1761
-0.7782 DO </s> -0.3010
-0.4771 DO NOTHING 0.0000
-0.3010 FINE </s> -0.3010
-0.3010 GO AWAY 0.0000
-0.3010 GOODBYE </s> -0.3010
-0.3010 HELLO </s> -0.3010
-0.3010 HELP ME 0.0000
-0.3010 HI </s> -0.3010
-0.3010 HIS STORY 0.0000
-0.6021 HISTORY </s> -0.3010
-0.6021 HISTORY IS -0.2553
-0.3010 HOW ARE 0.0000
-0.4771 I AM 0.0000
-0.7782 I CAN -0.1761
-1.0000 IS HIS 0.0000
-1.0000 IS HISTORY -0.1761
-1.0000 IS JHON 0.0000
-0.6990 IS YOUR 0.0000
-0.3010 JHON </s> -0.3010
-0.3010 ME </s> -0.3010
-0.3010 MY NAME -0.1761
-0.6021 NAME </s> -0.3010
-0.6021 NAME IS -0.2553
-0.3010 NO PLEASE 0.0000
-0.3010 NO,I CAN -0.1761
-0.3010 NOTHING </s> -0.3010
-0.3010 OH NO 0.0000
-0.3010 OLD </s> -0.3010
-0.3010 PLEASE </s> -0.3010
-0.3010 STORY </s> -0.3010
-0.3010 TEN YEARS 0.0000
-0.3010 THANK YOU -0.1761
-0.3010 THANKS </s> -0.3010
-0.9031 WHAT CAN -0.1761
-0.4260 WHAT IS -0.1461
-0.3010 YEARS OLD 0.0000
-0.6021 YOU </s> -0.3010
-0.9031 YOU DO -0.2218
-0.9031 YOU HELP 0.0000
-0.6021 YOUR AGE 0.0000
-0.6021 YOUR NAME -0.1761

\3-grams:
-0.3010 <s> BYE </s>
-0.3010 <s> CAN YOU
-0.3010 <s> GO AWAY
-0.3010 <s> GOODBYE </s>
-0.3010 <s> HELLO </s>
-0.3010 <s> HI </s>
-0.3010 <s> HISTORY IS
-0.3010 <s> HOW ARE
-0.4771 <s> I AM
-0.7782 <s> I CAN
-0.3010 <s> MY NAME
-0.3010 <s> NO,I CAN
-0.3010 <s> OH NO
-0.3010 <s> THANK YOU
-0.3010 <s> THANKS </s>
-0.9031 <s> WHAT CAN
-0.4260 <s> WHAT IS
-0.3010 AM FINE </s>
-0.3010 AM TEN YEARS
-0.3010 ARE YOU </s>
-0.3010 CAN DO NOTHING
-0.6021 CAN YOU DO
-0.6021 CAN YOU HELP
-0.3010 DO NOTHING </s>
-0.3010 GO AWAY </s>
-0.3010 HELP ME </s>
-0.3010 HIS STORY </s>
-0.3010 HISTORY IS HIS
-0.3010 HOW ARE YOU
-0.6021 I AM FINE
-0.6021 I AM TEN
-0.3010 I CAN DO
-0.3010 IS HIS STORY
-0.3010 IS HISTORY </s>
-0.3010 IS JHON </s>
-0.6021 IS YOUR AGE
-0.6021 IS YOUR NAME
-0.3010 MY NAME IS
-0.3010 NAME IS JHON
-0.3010 NO PLEASE </s>
-0.3010 NO,I CAN DO
-0.3010 OH NO PLEASE
-0.3010 TEN YEARS OLD
-0.3010 THANK YOU </s>
-0.3010 WHAT CAN YOU
-0.7782 WHAT IS HISTORY
-0.4771 WHAT IS YOUR
-0.3010 YEARS OLD </s>
-0.3010 YOU DO </s>
-0.3010 YOU HELP ME
-0.3010 YOUR AGE </s>
-0.3010 YOUR NAME </s>

\end\
